digraph Tree {
node [shape=box] ;
0 [label="X[196] <= -0.65\nentropy = 2.463\nsamples = 301\nvalue = [160, 27, 10, 10, 9, 17, 3, 1, 8, 35, 3, 5, 13]\nclass = y[0]"] ;
1 [label="X[14] <= 59.0\nentropy = 1.945\nsamples = 217\nvalue = [136, 5, 3, 1, 7, 15, 2, 1, 0, 33, 3, 2, 9]\nclass = y[0]"] ;
0 -> 1 [labeldistance=2.5, labelangle=45, headlabel="True"] ;
2 [label="X[227] <= -11.5\nentropy = 1.268\nsamples = 22\nvalue = [0, 0, 0, 0, 0, 15, 1, 0, 0, 5, 0, 0, 1]\nclass = y[5]"] ;
1 -> 2 ;
3 [label="X[6] <= 363.5\nentropy = 0.353\nsamples = 15\nvalue = [0, 0, 0, 0, 0, 14, 1, 0, 0, 0, 0, 0, 0]\nclass = y[5]"] ;
2 -> 3 ;
4 [label="entropy = 0.0\nsamples = 1\nvalue = [0, 0, 0, 0, 0, 0, 1, 0, 0, 0, 0, 0, 0]\nclass = y[6]"] ;
3 -> 4 ;
5 [label="entropy = 0.0\nsamples = 14\nvalue = [0, 0, 0, 0, 0, 14, 0, 0, 0, 0, 0, 0, 0]\nclass = y[5]"] ;
3 -> 5 ;
6 [label="X[65] <= 14.0\nentropy = 1.149\nsamples = 7\nvalue = [0, 0, 0, 0, 0, 1, 0, 0, 0, 5, 0, 0, 1]\nclass = y[9]"] ;
2 -> 6 ;
7 [label="entropy = 1.0\nsamples = 2\nvalue = [0, 0, 0, 0, 0, 1, 0, 0, 0, 0, 0, 0, 1]\nclass = y[5]"] ;
6 -> 7 ;
8 [label="entropy = 0.0\nsamples = 5\nvalue = [0, 0, 0, 0, 0, 0, 0, 0, 0, 5, 0, 0, 0]\nclass = y[9]"] ;
6 -> 8 ;
9 [label="X[92] <= 34.0\nentropy = 1.632\nsamples = 195\nvalue = [136, 5, 3, 1, 7, 0, 1, 1, 0, 28, 3, 2, 8]\nclass = y[0]"] ;
1 -> 9 ;
10 [label="X[111] <= 12.0\nentropy = 1.322\nsamples = 168\nvalue = [134, 4, 3, 1, 3, 0, 1, 1, 0, 10, 3, 2, 6]\nclass = y[0]"] ;
9 -> 10 ;
11 [label="X[223] <= 1.05\nentropy = 1.127\nsamples = 162\nvalue = [134, 4, 0, 1, 3, 0, 1, 1, 0, 10, 2, 1, 5]\nclass = y[0]"] ;
10 -> 11 ;
12 [label="entropy = 0.985\nsamples = 156\nvalue = [134, 4, 0, 1, 3, 0, 1, 1, 0, 5, 1, 1, 5]\nclass = y[0]"] ;
11 -> 12 ;
13 [label="entropy = 0.65\nsamples = 6\nvalue = [0, 0, 0, 0, 0, 0, 0, 0, 0, 5, 1, 0, 0]\nclass = y[9]"] ;
11 -> 13 ;
14 [label="X[180] <= -1.15\nentropy = 1.792\nsamples = 6\nvalue = [0, 0, 3, 0, 0, 0, 0, 0, 0, 0, 1, 1, 1]\nclass = y[2]"] ;
10 -> 14 ;
15 [label="entropy = 1.585\nsamples = 3\nvalue = [0, 0, 0, 0, 0, 0, 0, 0, 0, 0, 1, 1, 1]\nclass = y[10]"] ;
14 -> 15 ;
16 [label="entropy = 0.0\nsamples = 3\nvalue = [0, 0, 3, 0, 0, 0, 0, 0, 0, 0, 0, 0, 0]\nclass = y[2]"] ;
14 -> 16 ;
17 [label="X[162] <= -5.7\nentropy = 1.53\nsamples = 27\nvalue = [2, 1, 0, 0, 4, 0, 0, 0, 0, 18, 0, 0, 2]\nclass = y[9]"] ;
9 -> 17 ;
18 [label="X[162] <= -6.2\nentropy = 0.722\nsamples = 5\nvalue = [0, 1, 0, 0, 4, 0, 0, 0, 0, 0, 0, 0, 0]\nclass = y[4]"] ;
17 -> 18 ;
19 [label="entropy = 0.0\nsamples = 4\nvalue = [0, 0, 0, 0, 4, 0, 0, 0, 0, 0, 0, 0, 0]\nclass = y[4]"] ;
18 -> 19 ;
20 [label="entropy = 0.0\nsamples = 1\nvalue = [0, 1, 0, 0, 0, 0, 0, 0, 0, 0, 0, 0, 0]\nclass = y[1]"] ;
18 -> 20 ;
21 [label="X[177] <= 22.55\nentropy = 0.866\nsamples = 22\nvalue = [2, 0, 0, 0, 0, 0, 0, 0, 0, 18, 0, 0, 2]\nclass = y[9]"] ;
17 -> 21 ;
22 [label="entropy = 0.0\nsamples = 16\nvalue = [0, 0, 0, 0, 0, 0, 0, 0, 0, 16, 0, 0, 0]\nclass = y[9]"] ;
21 -> 22 ;
23 [label="entropy = 1.585\nsamples = 6\nvalue = [2, 0, 0, 0, 0, 0, 0, 0, 0, 2, 0, 0, 2]\nclass = y[0]"] ;
21 -> 23 ;
24 [label="X[116] <= 18.0\nentropy = 2.832\nsamples = 84\nvalue = [24, 22, 7, 9, 2, 2, 1, 0, 8, 2, 0, 3, 4]\nclass = y[0]"] ;
0 -> 24 [labeldistance=2.5, labelangle=-45, headlabel="False"] ;
25 [label="X[277] <= 23.85\nentropy = 2.426\nsamples = 21\nvalue = [2, 0, 7, 0, 1, 1, 1, 0, 7, 1, 0, 0, 1]\nclass = y[2]"] ;
24 -> 25 ;
26 [label="X[113] <= 18.0\nentropy = 1.491\nsamples = 11\nvalue = [2, 0, 7, 0, 1, 0, 0, 0, 0, 0, 0, 0, 1]\nclass = y[2]"] ;
25 -> 26 ;
27 [label="entropy = 0.0\nsamples = 7\nvalue = [0, 0, 7, 0, 0, 0, 0, 0, 0, 0, 0, 0, 0]\nclass = y[2]"] ;
26 -> 27 ;
28 [label="X[137] <= 28.0\nentropy = 1.5\nsamples = 4\nvalue = [2, 0, 0, 0, 1, 0, 0, 0, 0, 0, 0, 0, 1]\nclass = y[0]"] ;
26 -> 28 ;
29 [label="entropy = 1.0\nsamples = 2\nvalue = [0, 0, 0, 0, 1, 0, 0, 0, 0, 0, 0, 0, 1]\nclass = y[4]"] ;
28 -> 29 ;
30 [label="entropy = 0.0\nsamples = 2\nvalue = [2, 0, 0, 0, 0, 0, 0, 0, 0, 0, 0, 0, 0]\nclass = y[0]"] ;
28 -> 30 ;
31 [label="X[125] <= 58.0\nentropy = 1.357\nsamples = 10\nvalue = [0, 0, 0, 0, 0, 1, 1, 0, 7, 1, 0, 0, 0]\nclass = y[8]"] ;
25 -> 31 ;
32 [label="X[195] <= -0.65\nentropy = 1.585\nsamples = 3\nvalue = [0, 0, 0, 0, 0, 1, 1, 0, 0, 1, 0, 0, 0]\nclass = y[5]"] ;
31 -> 32 ;
33 [label="entropy = 0.0\nsamples = 1\nvalue = [0, 0, 0, 0, 0, 0, 1, 0, 0, 0, 0, 0, 0]\nclass = y[6]"] ;
32 -> 33 ;
34 [label="entropy = 1.0\nsamples = 2\nvalue = [0, 0, 0, 0, 0, 1, 0, 0, 0, 1, 0, 0, 0]\nclass = y[5]"] ;
32 -> 34 ;
35 [label="entropy = 0.0\nsamples = 7\nvalue = [0, 0, 0, 0, 0, 0, 0, 0, 7, 0, 0, 0, 0]\nclass = y[8]"] ;
31 -> 35 ;
36 [label="X[75] <= 28.0\nentropy = 2.259\nsamples = 63\nvalue = [22, 22, 0, 9, 1, 1, 0, 0, 1, 1, 0, 3, 3]\nclass = y[0]"] ;
24 -> 36 ;
37 [label="X[175] <= 0.3\nentropy = 1.947\nsamples = 49\nvalue = [21, 19, 0, 0, 1, 1, 0, 0, 1, 1, 0, 2, 3]\nclass = y[0]"] ;
36 -> 37 ;
38 [label="X[268] <= 15.4\nentropy = 1.95\nsamples = 7\nvalue = [0, 2, 0, 0, 0, 0, 0, 0, 1, 0, 0, 2, 2]\nclass = y[1]"] ;
37 -> 38 ;
39 [label="entropy = 0.918\nsamples = 3\nvalue = [0, 0, 0, 0, 0, 0, 0, 0, 1, 0, 0, 2, 0]\nclass = y[11]"] ;
38 -> 39 ;
40 [label="entropy = 1.0\nsamples = 4\nvalue = [0, 2, 0, 0, 0, 0, 0, 0, 0, 0, 0, 0, 2]\nclass = y[1]"] ;
38 -> 40 ;
41 [label="X[266] <= -0.65\nentropy = 1.542\nsamples = 42\nvalue = [21, 17, 0, 0, 1, 1, 0, 0, 0, 1, 0, 0, 1]\nclass = y[0]"] ;
37 -> 41 ;
42 [label="entropy = 0.946\nsamples = 14\nvalue = [2, 11, 0, 0, 0, 1, 0, 0, 0, 0, 0, 0, 0]\nclass = y[1]"] ;
41 -> 42 ;
43 [label="entropy = 1.371\nsamples = 28\nvalue = [19, 6, 0, 0, 1, 0, 0, 0, 0, 1, 0, 0, 1]\nclass = y[0]"] ;
41 -> 43 ;
44 [label="X[11] <= 30.0\nentropy = 1.43\nsamples = 14\nvalue = [1, 3, 0, 9, 0, 0, 0, 0, 0, 0, 0, 1, 0]\nclass = y[3]"] ;
36 -> 44 ;
45 [label="X[196] <= 0.9\nentropy = 1.371\nsamples = 5\nvalue = [1, 3, 0, 0, 0, 0, 0, 0, 0, 0, 0, 1, 0]\nclass = y[1]"] ;
44 -> 45 ;
46 [label="entropy = 1.0\nsamples = 2\nvalue = [1, 0, 0, 0, 0, 0, 0, 0, 0, 0, 0, 1, 0]\nclass = y[0]"] ;
45 -> 46 ;
47 [label="entropy = 0.0\nsamples = 3\nvalue = [0, 3, 0, 0, 0, 0, 0, 0, 0, 0, 0, 0, 0]\nclass = y[1]"] ;
45 -> 47 ;
48 [label="entropy = 0.0\nsamples = 9\nvalue = [0, 0, 0, 9, 0, 0, 0, 0, 0, 0, 0, 0, 0]\nclass = y[3]"] ;
44 -> 48 ;
}